<?xml version="1.0"?>
<opencv_storage>
<cascade>
  <stageType>BOOST</stageType>
  <featureType>HAAR</featureType>
  <height>20</height>
  <width>20</width>
  <stageParams>
    <boostType>GAB</boostType>
    <minHitRate>9.9500000476837158e-01</minHitRate>
    <maxFalseAlarm>5.0000000000000000e-01</maxFalseAlarm>
    <weightTrimRate>9.4999999999999996e-01</weightTrimRate>
    <maxDepth>1</maxDepth>
    <maxWeakCount>100</maxWeakCount></stageParams>
  <featureParams>
    <maxCatCount>0</maxCatCount>
    <featSize>1</featSize>
    <mode>BASIC</mode></featureParams>
  <stageNum>6</stageNum>
  <stages>
    <!-- stage 0 -->
    <_>
      <maxWeakCount>2</maxWeakCount>
      <stageThreshold>-1.0567028820514679e-01</stageThreshold>
      <weakClassifiers>
        <_>
          <internalNodes>
            0 -1 10 7.0420719683170319e-02</internalNodes>
          <leafValues>
            -9.6091955900192261e-01 9.4863390922546387e-01</leafValues></_>
        <_>
          <internalNodes>
            0 -1 8 1.3314238190650940e-01</internalNodes>
          <leafValues>
            -9.3582415580749512e-01 8.5524922609329224e-01</leafValues></_></weakClassifiers></_>
    <!-- stage 1 -->
    <_>
      <maxWeakCount>2</maxWeakCount>
      <stageThreshold>-1.6520290076732635e-01</stageThreshold>
      <weakClassifiers>
        <_>
          <internalNodes>
            0 -1 4 5.7303952053189278e-03</internalNodes>
          <leafValues>
            -9.4354838132858276e-01 8.1901842355728149e-01</leafValues></_>
        <_>
          <internalNodes>
            0 -1 19 -1.4373291283845901e-02</internalNodes>
          <leafValues>
            7.7834546566009521e-01 -7.7345961332321167e-01</leafValues></_></weakClassifiers></_>
    <!-- stage 2 -->
    <_>
      <maxWeakCount>2</maxWeakCount>
      <stageThreshold>-1.7411322891712189e-01</stageThreshold>
      <weakClassifiers>
        <_>
          <internalNodes>
            0 -1 5 2.9883738607168198e-02</internalNodes>
          <leafValues>
            -8.4551721811294556e-01 7.6607596874237061e-01</leafValues></_>
        <_>
          <internalNodes>
            0 -1 13 2.6535552740097046e-01</internalNodes>
          <leafValues>
            -7.7092188596725464e-01 6.7140400409698486e-01</leafValues></_></weakClassifiers></_>
    <!-- stage 3 -->
    <_>
      <maxWeakCount>4</maxWeakCount>
      <stageThreshold>-5.4314810037612915e-01</stageThreshold>
      <weakClassifiers>
        <_>
          <internalNodes>
            0 -1 15 -2.2908195387572050e-03</internalNodes>
          <leafValues>
            6.6416507959365845e-01 -9.0845072269439697e-01</leafValues></_>
        <_>
          <internalNodes>
            0 -1 11 1.0107300244271755e-02</internalNodes>
          <leafValues>
            -7.4354034662246704e-01 6.0929727554321289e-01</leafValues></_>
        <_>
          <internalNodes>
            0 -1 6 1.5769052505493164e-01</internalNodes>
          <leafValues>
            -6.8585175275802612e-01 5.6689667701721191e-01</leafValues></_>
        <_>
          <internalNodes>
            0 -1 0 2.3347804322838783e-02</internalNodes>
          <leafValues>
            -6.2001317739486694e-01 5.4194629192352295e-01</leafValues></_></weakClassifiers></_>
    <!-- stage 4 -->
    <_>
      <maxWeakCount>4</maxWeakCount>
      <stageThreshold>-4.3066045641899109e-01</stageThreshold>
      <weakClassifiers>
        <_>
          <internalNodes>
            0 -1 16 2.1981464698910713e-02</internalNodes>
          <leafValues>
            -6.5317916870117188e-01 6.7330676317214966e-01</leafValues></_>
        <_>
          <internalNodes>
            0 -1 17 1.0259333066642284e-02</internalNodes>
          <leafValues>
            -7.3021000623703003e-01 5.0013279914855957e-01</leafValues></_>
        <_>
          <internalNodes>
            0 -1 2 2.2418247535824776e-02</internalNodes>
          <leafValues>
            -6.1587858200073242e-01 6.0784256458282471e-01</leafValues></_>
        <_>
          <internalNodes>
            0 -1 12 5.1433783955872059e-03</internalNodes>
          <leafValues>
            -9.3785506486892700e-01 3.3826452493667603e-01</leafValues></_></weakClassifiers></_>
    <!-- stage 5 -->
    <_>
      <maxWeakCount>6</maxWeakCount>
      <stageThreshold>-5.2572774887084961e-01</stageThreshold>
      <weakClassifiers>
        <_>
          <internalNodes>
            0 -1 7 2.6551887392997742e-02</internalNodes>
          <leafValues>
            -7.7264654636383057e-01 6.2470752000808716e-01</leafValues></_>
        <_>
          <internalNodes>
            0 -1 14 8.1789735704660416e-03</internalNodes>
          <leafValues>
            -7.8713840246200562e-01 4.0392976999282837e-01</leafValues></_>
        <_>
          <internalNodes>
            0 -1 1 1.5208948403596878e-02</internalNodes>
          <leafValues>
            -5.0075340270996094e-01 5.8454996347427368e-01</leafValues></_>
        <_>
          <internalNodes>
            0 -1 3 7.6178410090506077e-03</internalNodes>
          <leafValues>
            -9.2078787088394165e-01 2.6428312063217163e-01</leafValues></_>
        <_>
          <internalNodes>
            0 -1 18 -3.1729690730571747e-02</internalNodes>
          <leafValues>
            4.8773926496505737e-01 -5.5566728115081787e-01</leafValues></_>
        <_>
          <internalNodes>
            0 -1 9 -1.3168132305145264e-01</internalNodes>
          <leafValues>
            6.4251595735549927e-01 -4.0827998518943787e-01</leafValues></_></weakClassifiers></_></stages>
  <features>
    <_>
      <rects>
        <_>
          0 3 6 12 -1.</_>
        <_>
          0 3 3 6 2.</_>
        <_>
          3 9 3 6 2.</_></rects>
      <tilted>0</tilted></_>
    <_>
      <rects>
        <_>
          2 7 4 3 -1.</_>
        <_>
          4 7 2 3 2.</_></rects>
      <tilted>0</tilted></_>
    <_>
      <rects>
        <_>
          2 7 4 5 -1.</_>
        <_>
          4 7 2 5 2.</_></rects>
      <tilted>0</tilted></_>
    <_>
      <rects>
        <_>
          3 5 4 10 -1.</_>
        <_>
          3 10 4 5 2.</_></rects>
      <tilted>0</tilted></_>
    <_>
      <rects>
        <_>
          3 6 8 1 -1.</_>
        <_>
          7 6 4 1 2.</_></rects>
      <tilted>0</tilted></_>
    <_>
      <rects>
        <_>
          3 7 9 6 -1.</_>
        <_>
          6 7 3 6 3.</_></rects>
      <tilted>0</tilted></_>
    <_>
      <rects>
        <_>
          4 3 12 8 -1.</_>
        <_>
          4 7 12 4 2.</_></rects>
      <tilted>0</tilted></_>
    <_>
      <rects>
        <_>
          4 4 12 4 -1.</_>
        <_>
          8 4 4 4 3.</_></rects>
      <tilted>0</tilted></_>
    <_>
      <rects>
        <_>
          4 4 11 12 -1.</_>
        <_>
          4 8 11 4 3.</_></rects>
      <tilted>0</tilted></_>
    <_>
      <rects>
        <_>
          5 0 9 9 -1.</_>
        <_>
          5 3 9 3 3.</_></rects>
      <tilted>0</tilted></_>
    <_>
      <rects>
        <_>
          5 3 10 6 -1.</_>
        <_>
          5 6 10 3 2.</_></rects>
      <tilted>0</tilted></_>
    <_>
      <rects>
        <_>
          5 5 12 1 -1.</_>
        <_>
          9 5 4 1 3.</_></rects>
      <tilted>0</tilted></_>
    <_>
      <rects>
        <_>
          5 9 6 4 -1.</_>
        <_>
          7 9 2 4 3.</_></rects>
      <tilted>0</tilted></_>
    <_>
      <rects>
        <_>
          6 2 10 15 -1.</_>
        <_>
          6 7 10 5 3.</_></rects>
      <tilted>0</tilted></_>
    <_>
      <rects>
        <_>
          8 7 3 9 -1.</_>
        <_>
          8 10 3 3 3.</_></rects>
      <tilted>0</tilted></_>
    <_>
      <rects>
        <_>
          8 8 6 4 -1.</_>
        <_>
          10 8 2 4 3.</_></rects>
      <tilted>0</tilted></_>
    <_>
      <rects>
        <_>
          10 3 5 4 -1.</_>
        <_>
          10 5 5 2 2.</_></rects>
      <tilted>0</tilted></_>
    <_>
      <rects>
        <_>
          11 8 6 4 -1.</_>
        <_>
          13 8 2 4 3.</_></rects>
      <tilted>0</tilted></_>
    <_>
      <rects>
        <_>
          14 3 6 8 -1.</_>
        <_>
          14 3 3 4 2.</_>
        <_>
          17 7 3 4 2.</_></rects>
      <tilted>0</tilted></_>
    <_>
      <rects>
        <_>
          14 6 4 6 -1.</_>
        <_>
          16 6 2 6 2.</_></rects>
      <tilted>0</tilted></_></features></cascade>
</opencv_storage>
